digraph Tree {
node [shape=box, style="filled, rounded", color="black", fontname="helvetica"] ;
edge [fontname="helvetica"] ;
0 [label="thalach <= 132.0\ngini = 0.46\nsamples = 131\nvalue = [132, 76]\nclass = 0", fillcolor="#f4caab"] ;
1 [label="sex <= 0.5\ngini = 0.46\nsamples = 49\nvalue = [28, 49]\nclass =  ", fillcolor="#aad5f4"] ;
0 -> 1 [labeldistance=2.5, labelangle=45, headlabel="True"] ;
2 [label="oldpeak <= 1.25\ngini = 0.42\nsamples = 15\nvalue = [16, 7]\nclass = 0", fillcolor="#f0b890"] ;
1 -> 2 ;
3 [label="exang <= 0.5\ngini = 0.27\nsamples = 13\nvalue = [16, 3]\nclass = 0", fillcolor="#ea995e"] ;
2 -> 3 ;
4 [label="gini = 0.0\nsamples = 9\nvalue = [13, 0]\nclass = 0", fillcolor="#e58139"] ;
3 -> 4 ;
5 [label="cp <= 3.5\ngini = 0.5\nsamples = 4\nvalue = [3, 3]\nclass = 0", fillcolor="#ffffff"] ;
3 -> 5 ;
6 [label="gini = 0.0\nsamples = 2\nvalue = [0, 3]\nclass =  ", fillcolor="#399de5"] ;
5 -> 6 ;
7 [label="gini = 0.0\nsamples = 2\nvalue = [3, 0]\nclass = 0", fillcolor="#e58139"] ;
5 -> 7 ;
8 [label="gini = 0.0\nsamples = 2\nvalue = [0, 4]\nclass =  ", fillcolor="#399de5"] ;
2 -> 8 ;
9 [label="trestbps <= 175.0\ngini = 0.35\nsamples = 34\nvalue = [12, 42]\nclass =  ", fillcolor="#72b9ec"] ;
1 -> 9 ;
10 [label="oldpeak <= 0.75\ngini = 0.29\nsamples = 32\nvalue = [9, 42]\nclass =  ", fillcolor="#63b2eb"] ;
9 -> 10 ;
11 [label="thalach <= 98.0\ngini = 0.5\nsamples = 14\nvalue = [9, 10]\nclass =  ", fillcolor="#ebf5fc"] ;
10 -> 11 ;
12 [label="gini = 0.0\nsamples = 2\nvalue = [0, 3]\nclass =  ", fillcolor="#399de5"] ;
11 -> 12 ;
13 [label="thalach <= 112.5\ngini = 0.49\nsamples = 12\nvalue = [9, 7]\nclass = 0", fillcolor="#f9e3d3"] ;
11 -> 13 ;
14 [label="gini = 0.0\nsamples = 3\nvalue = [4, 0]\nclass = 0", fillcolor="#e58139"] ;
13 -> 14 ;
15 [label="cp <= 2.5\ngini = 0.49\nsamples = 9\nvalue = [5, 7]\nclass =  ", fillcolor="#c6e3f8"] ;
13 -> 15 ;
16 [label="gini = 0.0\nsamples = 3\nvalue = [4, 0]\nclass = 0", fillcolor="#e58139"] ;
15 -> 16 ;
17 [label="chol <= 270.0\ngini = 0.22\nsamples = 6\nvalue = [1, 7]\nclass =  ", fillcolor="#55abe9"] ;
15 -> 17 ;
18 [label="gini = 0.0\nsamples = 4\nvalue = [0, 5]\nclass =  ", fillcolor="#399de5"] ;
17 -> 18 ;
19 [label="cp <= 3.5\ngini = 0.44\nsamples = 2\nvalue = [1, 2]\nclass =  ", fillcolor="#9ccef2"] ;
17 -> 19 ;
20 [label="gini = 0.0\nsamples = 1\nvalue = [0, 2]\nclass =  ", fillcolor="#399de5"] ;
19 -> 20 ;
21 [label="gini = 0.0\nsamples = 1\nvalue = [1, 0]\nclass = 0", fillcolor="#e58139"] ;
19 -> 21 ;
22 [label="gini = 0.0\nsamples = 18\nvalue = [0, 32]\nclass =  ", fillcolor="#399de5"] ;
10 -> 22 ;
23 [label="gini = 0.0\nsamples = 2\nvalue = [3, 0]\nclass = 0", fillcolor="#e58139"] ;
9 -> 23 ;
24 [label="oldpeak <= 1.75\ngini = 0.33\nsamples = 82\nvalue = [104, 27]\nclass = 0", fillcolor="#eca26c"] ;
0 -> 24 [labeldistance=2.5, labelangle=-45, headlabel="False"] ;
25 [label="trestbps <= 102.5\ngini = 0.28\nsamples = 76\nvalue = [102, 21]\nclass = 0", fillcolor="#ea9b62"] ;
24 -> 25 ;
26 [label="cp <= 3.0\ngini = 0.5\nsamples = 3\nvalue = [2, 2]\nclass = 0", fillcolor="#ffffff"] ;
25 -> 26 ;
27 [label="gini = 0.0\nsamples = 2\nvalue = [2, 0]\nclass = 0", fillcolor="#e58139"] ;
26 -> 27 ;
28 [label="gini = 0.0\nsamples = 1\nvalue = [0, 2]\nclass =  ", fillcolor="#399de5"] ;
26 -> 28 ;
29 [label="cp <= 3.5\ngini = 0.27\nsamples = 73\nvalue = [100, 19]\nclass = 0", fillcolor="#ea995f"] ;
25 -> 29 ;
30 [label="exang <= 0.5\ngini = 0.12\nsamples = 54\nvalue = [84, 6]\nclass = 0", fillcolor="#e78a47"] ;
29 -> 30 ;
31 [label="age <= 49.5\ngini = 0.11\nsamples = 52\nvalue = [83, 5]\nclass = 0", fillcolor="#e78945"] ;
30 -> 31 ;
32 [label="fbs <= 0.5\ngini = 0.17\nsamples = 32\nvalue = [47, 5]\nclass = 0", fillcolor="#e88e4e"] ;
31 -> 32 ;
33 [label="oldpeak <= 0.5\ngini = 0.12\nsamples = 30\nvalue = [45, 3]\nclass = 0", fillcolor="#e78946"] ;
32 -> 33 ;
34 [label="age <= 48.5\ngini = 0.13\nsamples = 28\nvalue = [40, 3]\nclass = 0", fillcolor="#e78a48"] ;
33 -> 34 ;
35 [label="thalach <= 141.0\ngini = 0.1\nsamples = 25\nvalue = [37, 2]\nclass = 0", fillcolor="#e68844"] ;
34 -> 35 ;
36 [label="thalach <= 139.0\ngini = 0.48\nsamples = 4\nvalue = [3, 2]\nclass = 0", fillcolor="#f6d5bd"] ;
35 -> 36 ;
37 [label="gini = 0.0\nsamples = 3\nvalue = [3, 0]\nclass = 0", fillcolor="#e58139"] ;
36 -> 37 ;
38 [label="gini = 0.0\nsamples = 1\nvalue = [0, 2]\nclass =  ", fillcolor="#399de5"] ;
36 -> 38 ;
39 [label="gini = 0.0\nsamples = 21\nvalue = [34, 0]\nclass = 0", fillcolor="#e58139"] ;
35 -> 39 ;
40 [label="chol <= 236.0\ngini = 0.38\nsamples = 3\nvalue = [3, 1]\nclass = 0", fillcolor="#eeab7b"] ;
34 -> 40 ;
41 [label="gini = 0.0\nsamples = 2\nvalue = [3, 0]\nclass = 0", fillcolor="#e58139"] ;
40 -> 41 ;
42 [label="gini = 0.0\nsamples = 1\nvalue = [0, 1]\nclass =  ", fillcolor="#399de5"] ;
40 -> 42 ;
43 [label="gini = 0.0\nsamples = 2\nvalue = [5, 0]\nclass = 0", fillcolor="#e58139"] ;
33 -> 43 ;
44 [label="sex <= 0.5\ngini = 0.5\nsamples = 2\nvalue = [2, 2]\nclass = 0", fillcolor="#ffffff"] ;
32 -> 44 ;
45 [label="gini = 0.0\nsamples = 1\nvalue = [0, 2]\nclass =  ", fillcolor="#399de5"] ;
44 -> 45 ;
46 [label="gini = 0.0\nsamples = 1\nvalue = [2, 0]\nclass = 0", fillcolor="#e58139"] ;
44 -> 46 ;
47 [label="gini = 0.0\nsamples = 20\nvalue = [36, 0]\nclass = 0", fillcolor="#e58139"] ;
31 -> 47 ;
48 [label="chol <= 232.5\ngini = 0.5\nsamples = 2\nvalue = [1, 1]\nclass = 0", fillcolor="#ffffff"] ;
30 -> 48 ;
49 [label="gini = 0.0\nsamples = 1\nvalue = [1, 0]\nclass = 0", fillcolor="#e58139"] ;
48 -> 49 ;
50 [label="gini = 0.0\nsamples = 1\nvalue = [0, 1]\nclass =  ", fillcolor="#399de5"] ;
48 -> 50 ;
51 [label="restecg <= 0.5\ngini = 0.49\nsamples = 19\nvalue = [16, 13]\nclass = 0", fillcolor="#fae7da"] ;
29 -> 51 ;
52 [label="thalach <= 137.5\ngini = 0.5\nsamples = 17\nvalue = [14, 13]\nclass = 0", fillcolor="#fdf6f1"] ;
51 -> 52 ;
53 [label="gini = 0.0\nsamples = 1\nvalue = [0, 3]\nclass =  ", fillcolor="#399de5"] ;
52 -> 53 ;
54 [label="age <= 47.0\ngini = 0.49\nsamples = 16\nvalue = [14, 10]\nclass = 0", fillcolor="#f8dbc6"] ;
52 -> 54 ;
55 [label="chol <= 210.0\ngini = 0.34\nsamples = 10\nvalue = [11, 3]\nclass = 0", fillcolor="#eca36f"] ;
54 -> 55 ;
56 [label="gini = 0.0\nsamples = 1\nvalue = [0, 1]\nclass =  ", fillcolor="#399de5"] ;
55 -> 56 ;
57 [label="thalach <= 164.0\ngini = 0.26\nsamples = 9\nvalue = [11, 2]\nclass = 0", fillcolor="#ea985d"] ;
55 -> 57 ;
58 [label="gini = 0.0\nsamples = 6\nvalue = [8, 0]\nclass = 0", fillcolor="#e58139"] ;
57 -> 58 ;
59 [label="chol <= 323.5\ngini = 0.48\nsamples = 3\nvalue = [3, 2]\nclass = 0", fillcolor="#f6d5bd"] ;
57 -> 59 ;
60 [label="gini = 0.0\nsamples = 1\nvalue = [0, 2]\nclass =  ", fillcolor="#399de5"] ;
59 -> 60 ;
61 [label="gini = 0.0\nsamples = 2\nvalue = [3, 0]\nclass = 0", fillcolor="#e58139"] ;
59 -> 61 ;
62 [label="age <= 51.5\ngini = 0.42\nsamples = 6\nvalue = [3, 7]\nclass =  ", fillcolor="#8ec7f0"] ;
54 -> 62 ;
63 [label="gini = 0.0\nsamples = 3\nvalue = [0, 7]\nclass =  ", fillcolor="#399de5"] ;
62 -> 63 ;
64 [label="gini = 0.0\nsamples = 3\nvalue = [3, 0]\nclass = 0", fillcolor="#e58139"] ;
62 -> 64 ;
65 [label="gini = 0.0\nsamples = 2\nvalue = [2, 0]\nclass = 0", fillcolor="#e58139"] ;
51 -> 65 ;
66 [label="sex <= 0.5\ngini = 0.38\nsamples = 6\nvalue = [2, 6]\nclass =  ", fillcolor="#7bbeee"] ;
24 -> 66 ;
67 [label="gini = 0.0\nsamples = 1\nvalue = [2, 0]\nclass = 0", fillcolor="#e58139"] ;
66 -> 67 ;
68 [label="gini = 0.0\nsamples = 5\nvalue = [0, 6]\nclass =  ", fillcolor="#399de5"] ;
66 -> 68 ;
}